FANN_FLO_2.1
num_layers=3
learning_rate=0.700000
connection_rate=1.000000
network_type=0
learning_momentum=0.000000
training_algorithm=2
train_error_function=1
train_stop_function=0
cascade_output_change_fraction=0.010000
quickprop_decay=-0.000100
quickprop_mu=1.750000
rprop_increase_factor=1.200000
rprop_decrease_factor=0.500000
rprop_delta_min=0.000000
rprop_delta_max=50.000000
rprop_delta_zero=0.100000
cascade_output_stagnation_epochs=12
cascade_candidate_change_fraction=0.010000
cascade_candidate_stagnation_epochs=12
cascade_max_out_epochs=150
cascade_max_cand_epochs=150
cascade_num_candidate_groups=2
bit_fail_limit=3.49999994039535522461e-01
cascade_candidate_limit=1.00000000000000000000e+03
cascade_weight_multiplier=4.00000005960464477539e-01
cascade_activation_functions_count=10
cascade_activation_functions=3 5 7 8 10 11 14 15 16 17 
cascade_activation_steepnesses_count=4
cascade_activation_steepnesses=2.50000000000000000000e-01 5.00000000000000000000e-01 7.50000000000000000000e-01 1.00000000000000000000e+00 
layer_sizes=4 7 4 
scale_included=0
neurons (num_inputs, activation_function, activation_steepness)=(0, 0, 0.00000000000000000000e+00) (0, 0, 0.00000000000000000000e+00) (0, 0, 0.00000000000000000000e+00) (0, 0, 0.00000000000000000000e+00) (4, 5, 5.00000000000000000000e-01) (4, 5, 5.00000000000000000000e-01) (4, 5, 5.00000000000000000000e-01) (4, 5, 5.00000000000000000000e-01) (4, 5, 5.00000000000000000000e-01) (4, 5, 5.00000000000000000000e-01) (0, 5, 0.00000000000000000000e+00) (7, 5, 5.00000000000000000000e-01) (7, 5, 5.00000000000000000000e-01) (7, 5, 5.00000000000000000000e-01) (0, 5, 0.00000000000000000000e+00) 
connections (connected_to_neuron, weight)=(0, -6.00172472000122070312e+00) (1, -6.23328149318695068359e-01) (2, -1.17508068680763244629e-01) (3, 6.82210266590118408203e-01) (0, -5.63535451889038085938e-01) (1, -1.17116487026214599609e+00) (2, -1.12266898155212402344e-01) (3, 3.30158203840255737305e-01) (0, 7.27929878234863281250e+00) (1, 1.21636748313903808594e+00) (2, -5.55412881076335906982e-02) (3, -8.26125979423522949219e-01) (0, 9.61425781250000000000e-01) (1, -1.20268547534942626953e+00) (2, 7.00170919299125671387e-02) (3, 1.16143429279327392578e+00) (0, -4.35754089355468750000e+01) (1, 2.10026884078979492188e+00) (2, 1.68745324015617370605e-01) (3, -5.75932562351226806641e-01) (0, -1.19871589660644531250e+02) (1, -7.74383544921875000000e-01) (2, -2.76447981595993041992e-01) (3, 3.48450398445129394531e+00) (4, -1.40927004814147949219e+00) (5, -1.59990519285202026367e-01) (6, 3.28737092018127441406e+00) (7, 4.23697900772094726562e+00) (8, 5.55521202087402343750e+00) (9, -1.84704172611236572266e+00) (10, 2.57488250732421875000e-01) (4, 5.14944136142730712891e-01) (5, 1.24822115898132324219e+00) (6, -3.61420178413391113281e+00) (7, 7.36980056762695312500e+00) (8, -1.05208652094006538391e-02) (9, 1.11416947841644287109e+00) (10, 2.43135404586791992188e+00) (4, -7.39301633834838867188e+00) (5, -1.34943497180938720703e+00) (6, 9.98873054981231689453e-01) (7, -9.52006280422210693359e-01) (8, -4.51111745834350585938e+00) (9, 1.87628829479217529297e+00) (10, -5.15943408012390136719e-01) 
