FANN_FLO_2.1
num_layers=3
learning_rate=0.700000
connection_rate=1.000000
network_type=0
learning_momentum=0.000000
training_algorithm=2
train_error_function=1
train_stop_function=0
cascade_output_change_fraction=0.010000
quickprop_decay=-0.000100
quickprop_mu=1.750000
rprop_increase_factor=1.200000
rprop_decrease_factor=0.500000
rprop_delta_min=0.000000
rprop_delta_max=50.000000
rprop_delta_zero=0.100000
cascade_output_stagnation_epochs=12
cascade_candidate_change_fraction=0.010000
cascade_candidate_stagnation_epochs=12
cascade_max_out_epochs=150
cascade_max_cand_epochs=150
cascade_num_candidate_groups=2
bit_fail_limit=3.49999994039535522461e-01
cascade_candidate_limit=1.00000000000000000000e+03
cascade_weight_multiplier=4.00000005960464477539e-01
cascade_activation_functions_count=10
cascade_activation_functions=3 5 7 8 10 11 14 15 16 17 
cascade_activation_steepnesses_count=4
cascade_activation_steepnesses=2.50000000000000000000e-01 5.00000000000000000000e-01 7.50000000000000000000e-01 1.00000000000000000000e+00 
layer_sizes=4 7 4 
scale_included=0
neurons (num_inputs, activation_function, activation_steepness)=(0, 0, 0.00000000000000000000e+00) (0, 0, 0.00000000000000000000e+00) (0, 0, 0.00000000000000000000e+00) (0, 0, 0.00000000000000000000e+00) (4, 5, 5.00000000000000000000e-01) (4, 5, 5.00000000000000000000e-01) (4, 5, 5.00000000000000000000e-01) (4, 5, 5.00000000000000000000e-01) (4, 5, 5.00000000000000000000e-01) (4, 5, 5.00000000000000000000e-01) (0, 5, 0.00000000000000000000e+00) (7, 5, 5.00000000000000000000e-01) (7, 5, 5.00000000000000000000e-01) (7, 5, 5.00000000000000000000e-01) (0, 5, 0.00000000000000000000e+00) 
connections (connected_to_neuron, weight)=(0, 4.11565923690795898438e+00) (1, -4.91854995489120483398e-02) (2, 5.27640867233276367188e+00) (3, -7.64858007431030273438e-01) (0, -3.08883209228515625000e+01) (1, -3.01541781425476074219e+00) (2, 9.38633728027343750000e+00) (3, -3.53618335723876953125e+00) (0, 1.50000000000000000000e+03) (1, 1.80795230865478515625e+01) (2, 1.57361164093017578125e+01) (3, 1.94640674591064453125e+01) (0, -2.84276604652404785156e+00) (1, 1.06382107734680175781e+00) (2, -5.05878734588623046875e+00) (3, 1.56958234310150146484e+00) (0, 3.02980251312255859375e+01) (1, -2.08003544807434082031e+00) (2, 3.80317664146423339844e+00) (3, 4.59355711936950683594e-02) (0, 3.95021171569824218750e+01) (1, -2.29075288772583007812e+00) (2, -1.83736217021942138672e+00) (3, -4.61614936590194702148e-01) (4, -7.18707122802734375000e+01) (5, -1.99391441345214843750e+01) (6, 1.24589004516601562500e+01) (7, -4.93400917053222656250e+01) (8, 3.30117454528808593750e+01) (9, 1.54056015014648437500e+01) (10, 1.39914617538452148438e+01) (4, 4.44770097732543945312e+00) (5, 3.54621201753616333008e-01) (6, 1.51951551437377929688e+00) (7, -1.46626007556915283203e+00) (8, -5.32003259658813476562e+00) (9, 5.21292877197265625000e+00) (10, 2.15950012207031250000e+00) (4, 9.20541610717773437500e+01) (5, 3.08441867828369140625e+01) (6, -3.85617971420288085938e+00) (7, 9.91954879760742187500e+01) (8, 9.09274482727050781250e+00) (9, 2.61193199157714843750e+01) (10, -5.11364507675170898438e+00) 
