FANN_FLO_2.1
num_layers=3
learning_rate=0.700000
connection_rate=1.000000
network_type=0
learning_momentum=0.000000
training_algorithm=2
train_error_function=1
train_stop_function=0
cascade_output_change_fraction=0.010000
quickprop_decay=-0.000100
quickprop_mu=1.750000
rprop_increase_factor=1.200000
rprop_decrease_factor=0.500000
rprop_delta_min=0.000000
rprop_delta_max=50.000000
rprop_delta_zero=0.100000
cascade_output_stagnation_epochs=12
cascade_candidate_change_fraction=0.010000
cascade_candidate_stagnation_epochs=12
cascade_max_out_epochs=150
cascade_max_cand_epochs=150
cascade_num_candidate_groups=2
bit_fail_limit=3.49999994039535522461e-01
cascade_candidate_limit=1.00000000000000000000e+03
cascade_weight_multiplier=4.00000005960464477539e-01
cascade_activation_functions_count=10
cascade_activation_functions=3 5 7 8 10 11 14 15 16 17 
cascade_activation_steepnesses_count=4
cascade_activation_steepnesses=2.50000000000000000000e-01 5.00000000000000000000e-01 7.50000000000000000000e-01 1.00000000000000000000e+00 
layer_sizes=4 7 4 
scale_included=0
neurons (num_inputs, activation_function, activation_steepness)=(0, 0, 0.00000000000000000000e+00) (0, 0, 0.00000000000000000000e+00) (0, 0, 0.00000000000000000000e+00) (0, 0, 0.00000000000000000000e+00) (4, 5, 5.00000000000000000000e-01) (4, 5, 5.00000000000000000000e-01) (4, 5, 5.00000000000000000000e-01) (4, 5, 5.00000000000000000000e-01) (4, 5, 5.00000000000000000000e-01) (4, 5, 5.00000000000000000000e-01) (0, 5, 0.00000000000000000000e+00) (7, 5, 5.00000000000000000000e-01) (7, 5, 5.00000000000000000000e-01) (7, 5, 5.00000000000000000000e-01) (0, 5, 0.00000000000000000000e+00) 
connections (connected_to_neuron, weight)=(0, -7.15802907943725585938e+00) (1, -6.35385870933532714844e-01) (2, 2.52552103996276855469e+00) (3, -4.65784400701522827148e-01) (0, 8.78441619873046875000e+00) (1, 7.85281717777252197266e-01) (2, 6.33501648902893066406e-01) (3, 4.77892339229583740234e-01) (0, 4.56061649322509765625e+00) (1, 1.16072285175323486328e+00) (2, 6.44666373729705810547e-01) (3, 7.44699776172637939453e-01) (0, -9.12028598785400390625e+00) (1, -4.50238347053527832031e-01) (2, 4.82106161117553710938e+00) (3, -7.52872169017791748047e-01) (0, 1.50000000000000000000e+03) (1, 1.50000000000000000000e+03) (2, 1.50000000000000000000e+03) (3, 1.32586315917968750000e+03) (0, 1.02141690254211425781e+00) (1, 1.00374925136566162109e+00) (2, 5.82290887832641601562e-01) (3, 7.65629351139068603516e-01) (4, 1.24901599884033203125e+01) (5, 1.27602839469909667969e+00) (6, 4.36162471771240234375e-01) (7, -3.31189155578613281250e+00) (8, 8.59423398971557617188e-01) (9, 4.71524149179458618164e-01) (10, 2.72080093622207641602e-01) (4, -8.96244496107101440430e-02) (5, 1.19241528213024139404e-01) (6, -2.88394093513488769531e-01) (7, 1.18192486464977264404e-01) (8, 2.08916172385215759277e-01) (9, -3.26269805431365966797e-01) (10, 1.36987000703811645508e-01) (4, 2.71150946617126464844e+00) (5, 1.38363337516784667969e+00) (6, 8.00168216228485107422e-01) (7, -9.90369892120361328125e+00) (8, 1.74781835079193115234e+00) (9, 9.80502963066101074219e-01) (10, 2.89731287956237792969e+00) 
