FANN_FLO_2.1
num_layers=3
learning_rate=0.700000
connection_rate=1.000000
network_type=0
learning_momentum=0.000000
training_algorithm=2
train_error_function=1
train_stop_function=0
cascade_output_change_fraction=0.010000
quickprop_decay=-0.000100
quickprop_mu=1.750000
rprop_increase_factor=1.200000
rprop_decrease_factor=0.500000
rprop_delta_min=0.000000
rprop_delta_max=50.000000
rprop_delta_zero=0.100000
cascade_output_stagnation_epochs=12
cascade_candidate_change_fraction=0.010000
cascade_candidate_stagnation_epochs=12
cascade_max_out_epochs=150
cascade_max_cand_epochs=150
cascade_num_candidate_groups=2
bit_fail_limit=3.49999994039535522461e-01
cascade_candidate_limit=1.00000000000000000000e+03
cascade_weight_multiplier=4.00000005960464477539e-01
cascade_activation_functions_count=10
cascade_activation_functions=3 5 7 8 10 11 14 15 16 17 
cascade_activation_steepnesses_count=4
cascade_activation_steepnesses=2.50000000000000000000e-01 5.00000000000000000000e-01 7.50000000000000000000e-01 1.00000000000000000000e+00 
layer_sizes=4 7 4 
scale_included=0
neurons (num_inputs, activation_function, activation_steepness)=(0, 0, 0.00000000000000000000e+00) (0, 0, 0.00000000000000000000e+00) (0, 0, 0.00000000000000000000e+00) (0, 0, 0.00000000000000000000e+00) (4, 5, 5.00000000000000000000e-01) (4, 5, 5.00000000000000000000e-01) (4, 5, 5.00000000000000000000e-01) (4, 5, 5.00000000000000000000e-01) (4, 5, 5.00000000000000000000e-01) (4, 5, 5.00000000000000000000e-01) (0, 5, 0.00000000000000000000e+00) (7, 5, 5.00000000000000000000e-01) (7, 5, 5.00000000000000000000e-01) (7, 5, 5.00000000000000000000e-01) (0, 5, 0.00000000000000000000e+00) 
connections (connected_to_neuron, weight)=(0, 8.15746582031250000000e+02) (1, 2.49940795898437500000e+01) (2, 1.49951794433593750000e+03) (3, 2.74963073730468750000e+01) (0, 1.47193450927734375000e+01) (1, 8.46712112426757812500e+00) (2, -3.03281612396240234375e+01) (3, 9.81486606597900390625e+00) (0, 6.80964965820312500000e+01) (1, 2.03439826965332031250e+01) (2, -3.18325881958007812500e+01) (3, 2.25754318237304687500e+01) (0, 1.77521362304687500000e+02) (1, -1.03670492172241210938e+01) (2, -1.50000000000000000000e+03) (3, -5.37466859817504882812e+00) (0, 4.48063230514526367188e+00) (1, 4.45757961273193359375e+00) (2, 8.67364585399627685547e-01) (3, 4.53562116622924804688e+00) (0, -5.94072961807250976562e+00) (1, -1.19415986537933349609e+00) (2, 5.84814262390136718750e+00) (3, -1.18518686294555664062e+00) (4, 1.77452278137207031250e+00) (5, -2.16115417480468750000e+01) (6, 4.63937091827392578125e+00) (7, 5.58803672790527343750e+01) (8, 6.83201599121093750000e+01) (9, -4.46130332946777343750e+01) (10, 1.69894361495971679688e+00) (4, 3.45316171646118164062e+00) (5, 5.89593127369880676270e-02) (6, 3.02870702743530273438e+00) (7, 1.68878784179687500000e+01) (8, 6.82196617126464843750e+00) (9, 1.21853560209274291992e-01) (10, 3.53290629386901855469e+00) (4, 2.70709266662597656250e+01) (5, 2.80558967590332031250e+01) (6, 3.10029716491699218750e+01) (7, 2.93287429809570312500e+01) (8, -7.43575210571289062500e+01) (9, 5.18156967163085937500e+01) (10, 2.71232814788818359375e+01) 
