FANN_FLO_2.1
num_layers=3
learning_rate=0.700000
connection_rate=1.000000
network_type=0
learning_momentum=0.000000
training_algorithm=2
train_error_function=1
train_stop_function=0
cascade_output_change_fraction=0.010000
quickprop_decay=-0.000100
quickprop_mu=1.750000
rprop_increase_factor=1.200000
rprop_decrease_factor=0.500000
rprop_delta_min=0.000000
rprop_delta_max=50.000000
rprop_delta_zero=0.100000
cascade_output_stagnation_epochs=12
cascade_candidate_change_fraction=0.010000
cascade_candidate_stagnation_epochs=12
cascade_max_out_epochs=150
cascade_max_cand_epochs=150
cascade_num_candidate_groups=2
bit_fail_limit=3.49999994039535522461e-01
cascade_candidate_limit=1.00000000000000000000e+03
cascade_weight_multiplier=4.00000005960464477539e-01
cascade_activation_functions_count=10
cascade_activation_functions=3 5 7 8 10 11 14 15 16 17 
cascade_activation_steepnesses_count=4
cascade_activation_steepnesses=2.50000000000000000000e-01 5.00000000000000000000e-01 7.50000000000000000000e-01 1.00000000000000000000e+00 
layer_sizes=4 7 4 
scale_included=0
neurons (num_inputs, activation_function, activation_steepness)=(0, 0, 0.00000000000000000000e+00) (0, 0, 0.00000000000000000000e+00) (0, 0, 0.00000000000000000000e+00) (0, 0, 0.00000000000000000000e+00) (4, 5, 5.00000000000000000000e-01) (4, 5, 5.00000000000000000000e-01) (4, 5, 5.00000000000000000000e-01) (4, 5, 5.00000000000000000000e-01) (4, 5, 5.00000000000000000000e-01) (4, 5, 5.00000000000000000000e-01) (0, 5, 0.00000000000000000000e+00) (7, 5, 5.00000000000000000000e-01) (7, 5, 5.00000000000000000000e-01) (7, 5, 5.00000000000000000000e-01) (0, 5, 0.00000000000000000000e+00) 
connections (connected_to_neuron, weight)=(0, 4.34412908554077148438e+00) (1, -1.16922378540039062500e+00) (2, -1.80839478969573974609e-01) (3, -1.27590370178222656250e+00) (0, 8.29241882324218750000e+02) (1, 1.89036393165588378906e+00) (2, 8.97768005371093750000e+02) (3, 1.92212212085723876953e+00) (0, 7.12935805320739746094e-01) (1, 6.37643432617187500000e+00) (2, 2.62735104560852050781e+00) (3, 6.42682504653930664062e+00) (0, -8.55148017406463623047e-01) (1, 4.83895659446716308594e-01) (2, -9.78996932506561279297e-01) (3, 3.16631466150283813477e-01) (0, -6.96661090850830078125e+00) (1, 8.12344610691070556641e-01) (2, 8.89684617519378662109e-01) (3, 7.48566806316375732422e-01) (0, 6.48696041107177734375e+00) (1, -1.68828117847442626953e+00) (2, -8.52951779961585998535e-02) (3, -1.50875103473663330078e+00) (4, 6.42910051345825195312e+00) (5, 7.85187244415283203125e-01) (6, 8.38655531406402587891e-01) (7, -1.71482729911804199219e+00) (8, 6.23926067352294921875e+00) (9, 1.70738267898559570312e+00) (10, 2.10546851158142089844e+00) (4, -2.37484350800514221191e-01) (5, 1.26852869987487792969e-01) (6, -2.41982620209455490112e-02) (7, 3.25841158628463745117e-02) (8, 1.88874959945678710938e-01) (9, 3.45298796892166137695e-01) (10, -7.50244185328483581543e-02) (4, -1.88928604125976562500e+00) (5, 1.04635286331176757812e+00) (6, 1.05805337429046630859e+00) (7, -5.90852618217468261719e-01) (8, 4.27486181259155273438e-01) (9, -2.27133989334106445312e+00) (10, 1.33475625514984130859e+00) 
