FANN_FLO_2.1
num_layers=3
learning_rate=0.700000
connection_rate=1.000000
network_type=0
learning_momentum=0.000000
training_algorithm=2
train_error_function=1
train_stop_function=0
cascade_output_change_fraction=0.010000
quickprop_decay=-0.000100
quickprop_mu=1.750000
rprop_increase_factor=1.200000
rprop_decrease_factor=0.500000
rprop_delta_min=0.000000
rprop_delta_max=50.000000
rprop_delta_zero=0.100000
cascade_output_stagnation_epochs=12
cascade_candidate_change_fraction=0.010000
cascade_candidate_stagnation_epochs=12
cascade_max_out_epochs=150
cascade_max_cand_epochs=150
cascade_num_candidate_groups=2
bit_fail_limit=3.49999994039535522461e-01
cascade_candidate_limit=1.00000000000000000000e+03
cascade_weight_multiplier=4.00000005960464477539e-01
cascade_activation_functions_count=10
cascade_activation_functions=3 5 7 8 10 11 14 15 16 17 
cascade_activation_steepnesses_count=4
cascade_activation_steepnesses=2.50000000000000000000e-01 5.00000000000000000000e-01 7.50000000000000000000e-01 1.00000000000000000000e+00 
layer_sizes=4 7 4 
scale_included=0
neurons (num_inputs, activation_function, activation_steepness)=(0, 0, 0.00000000000000000000e+00) (0, 0, 0.00000000000000000000e+00) (0, 0, 0.00000000000000000000e+00) (0, 0, 0.00000000000000000000e+00) (4, 5, 5.00000000000000000000e-01) (4, 5, 5.00000000000000000000e-01) (4, 5, 5.00000000000000000000e-01) (4, 5, 5.00000000000000000000e-01) (4, 5, 5.00000000000000000000e-01) (4, 5, 5.00000000000000000000e-01) (0, 5, 0.00000000000000000000e+00) (7, 5, 5.00000000000000000000e-01) (7, 5, 5.00000000000000000000e-01) (7, 5, 5.00000000000000000000e-01) (0, 5, 0.00000000000000000000e+00) 
connections (connected_to_neuron, weight)=(0, -3.96893954277038574219e+00) (1, 3.88420104980468750000e-01) (2, -9.76758897304534912109e-01) (3, 4.01999145746231079102e-01) (0, -6.93335533142089843750e+00) (1, 2.02499732375144958496e-01) (2, 7.85452544689178466797e-01) (3, -1.82381451129913330078e-01) (0, 8.67975902557373046875e+00) (1, 1.35096967220306396484e-01) (2, -1.36210691928863525391e+00) (3, 4.78365838527679443359e-01) (0, 1.84124698638916015625e+01) (1, 1.21670854091644287109e+00) (2, 5.62287926673889160156e-01) (3, -9.10310074687004089355e-02) (0, 2.10783634185791015625e+01) (1, 5.24836063385009765625e-01) (2, 5.71199715137481689453e-01) (3, 3.80722939968109130859e-01) (0, 1.22826175689697265625e+01) (1, 8.14308047294616699219e-01) (2, -2.56401658058166503906e+00) (3, 1.24535071849822998047e+00) (4, -2.47445607185363769531e+00) (5, 1.06773376464843750000e+01) (6, 1.77607917785644531250e+00) (7, 2.07235169410705566406e+00) (8, 1.84538185596466064453e+00) (9, -4.93238735198974609375e+00) (10, 4.42532777786254882812e-01) (4, 4.67709340155124664307e-02) (5, 2.67021685838699340820e-01) (6, 4.20522838830947875977e-01) (7, -5.36206066608428955078e-01) (8, 5.78782498836517333984e-01) (9, -2.14559271931648254395e-01) (10, 2.76605109684169292450e-03) (4, -7.59943008422851562500e+00) (5, -2.10877761840820312500e+01) (6, 1.63079357147216796875e+01) (7, 3.52561384439468383789e-01) (8, 7.75434970855712890625e-01) (9, -1.21452579498291015625e+01) (10, 2.30174255371093750000e+00) 
